{
  "learner": {
    "attributes": {
      "best_iteration": "36",
      "best_score": "18.01215382588063",
      "scikit_learn": "{\"_estimator_type\": \"regressor\"}"
    },
    "feature_names": [],
    "feature_types": [],
    "gradient_booster": {
      "gbtree": {
        "model": {
          "gbtree_model_param": {
            "num_parallel_tree": "1",
            "num_trees": "47"
          },
          "iteration_indptr": [
            0,
            1,
            2,
            3,
            4,
            5,
            6,
            7,
            8,
            9,
            10,
            11,
            12,
            13,
            14,
            15,
            16,
            17,
            18,
            19,
            20,
            21,
            22,
            23,
            24,
            25,
            26,
            27,
            28,
            29,
            30,
            31,
            32,
            33,
            34,
            35,
            36,
            37,
            38,
            39,
            40,
            41,
            42,
            43,
            44,
            45,
            46,
            47
          ],
          "tree_info": [
            0,
            0,
            0,
            0,
            0,
            0,
            0,
            0,
            0,
            0,
            0,
            0,
            0,
            0,
            0,
            0,
            0,
            0,
            0,
            0,
            0,
            0,
            0,
            0,
            0,
            0,
            0,
            0,
            0,
            0,
            0,
            0,
            0,
            0,
            0,
            0,
            0,
            0,
            0,
            0,
            0,
            0,
            0,
            0,
            0,
            0,
            0
          ],
          "trees": [
            {
              "base_weights": [
                -0E0,
                -1.0181915E1,
                4.572304E1,
                -1.6597433E1,
                6.835971E1,
                -2.0777855E1,
                1.1875839E1,
                6.653352E1,
                -1.1890612E1,
                -1.4883857E1,
                -5.8603813E1,
                -2.98736E1,
                -4.9295006E0,
                1.7264835E1,
                -1.6608606E1,
                -3.5259747E1,
                2.3209422E0,
                -1.0322344E1,
                -6.0056624E0,
                3.5357674E1,
                -5.7240504E-1,
                2.6945972E0,
                8.801938E0,
                -4.0740995E0,
                1.4134938E0,
                -1.830122E1,
                -4.2715492E1,
                -5.6459384E0,
                -1.1382371E0,
                -1.7392374E0,
                1.419431E0,
                -1.0237519E0,
                -4.0740995E0,
                -7.6183715E0,
                -4.02072E0,
                9.740667E0,
                6.288855E0,
                3.3170636E0,
                5.310184E0
              ],
              "categories": [],
              "categories_nodes": [],
              "categories_segments": [],
              "categories_sizes": [],
              "default_left": [
                0,
                0,
                0,
                0,
                0,
                0,
                0,
                0,
                0,
                0,
                0,
                0,
                0,
                0,
                0,
                0,
                0,
                0,
                0,
                0,
                0,
                0,
                0,
                0,
                0,
                0,
                0,
                0,
                0,
                0,
                0,
                0,
                0,
                0,
                0,
                0,
                0,
                0,
                0
              ],
              "id": 0,
              "left_children": [
                1,
                3,
                7,
                5,
                35,
                9,
                -1,
                21,
                23,
                11,
                33,
                15,
                13,
                19,
                17,
                25,
                -1,
                29,
                -1,
                37,
                -1,
                -1,
                -1,
                -1,
                -1,
                31,
                27,
                -1,
                -1,
                -1,
                -1,
                -1,
                -1,
                -1,
                -1,
                -1,
                -1,
                -1,
                -1
              ],
              "loss_changes": [
                3.8811414E4,
                3.45599E4,
                1.835521E4,
                3.1676725E4,
                2.944629E2,
                1.3473309E4,
                0E0,
                4.0310508E3,
                2.397399E3,
                7.905244E3,
                9.095117E2,
                5.810869E3,
                8.394879E3,
                4.5219624E3,
                4.545985E3,
                2.2760469E3,
                0E0,
                1.9153822E3,
                0E0,
                1.8990332E2,
                0E0,
                0E0,
                0E0,
                0E0,
                0E0,
                9.194243E2,
                2.3937441E3,
                0E0,
                0E0,
                0E0,
                0E0,
                0E0,
                0E0,
                0E0,
                0E0,
                0E0,
                0E0,
                0E0,
                0E0
              ],
              "parents": [
                2147483647,
                0,
                0,
                1,
                1,
                3,
                3,
                2,
                2,
                5,
                5,
                9,
                9,
                12,
                12,
                11,
                11,
                14,
                14,
                13,
                13,
                7,
                7,
                8,
                8,
                15,
                15,
                26,
                26,
                17,
                17,
                25,
                25,
                10,
                10,
                4,
                4,
                19,
                19
              ],
              "right_children": [
                2,
                4,
                8,
                6,
                36,
                10,
                -1,
                22,
                24,
                12,
                34,
                16,
                14,
                20,
                18,
                26,
                -1,
                30,
                -1,
                38,
                -1,
                -1,
                -1,
                -1,
                -1,
                32,
                28,
                -1,
                -1,
                -1,
                -1,
                -1,
                -1,
                -1,
                -1,
                -1,
                -1,
                -1,
                -1
              ],
              "split_conditions": [
                6.4E1,
                5E-1,
                1E0,
                1E0,
                3.2E1,
                2.5E3,
                1.1875839E1,
                1.12E2,
                7.5E1,
                2E1,
                1E2,
                9.3E2,
                1E0,
                1.2E0,
                2.9E0,
                1E0,
                2.3209422E0,
                2.5E-2,
                -6.0056624E0,
                7.5E0,
                -5.7240504E-1,
                2.6945972E0,
                8.801938E0,
                -4.0740995E0,
                1.4134938E0,
                1.93E2,
                2E2,
                -5.6459384E0,
                -1.1382371E0,
                -1.7392374E0,
                1.419431E0,
                -1.0237519E0,
                -4.0740995E0,
                -7.6183715E0,
                -4.02072E0,
                9.740667E0,
                6.288855E0,
                3.3170636E0,
                5.310184E0
              ],
              "split_indices": [
                0,
                112,
                364,
                97,
                0,
                6,
                0,
                7,
                0,
                1,
                271,
                5,
                364,
                214,
                148,
                88,
                0,
                150,
                0,
                4,
                0,
                0,
                0,
                0,
                0,
                6,
                6,
                0,
                0,
                0,
                0,
                0,
                0,
                0,
                0,
                0,
                0,
                0,
                0
              ],
              "split_type": [
                0,
                0,
                0,
                0,
                0,
                0,
                0,
                0,
                0,
                0,
                0,
                0,
                0,
                0,
                0,
                0,
                0,
                0,
                0,
                0,
                0,
                0,
                0,
                0,
                0,
                0,
                0,
                0,
                0,
                0,
                0,
                0,
                0,
                0,
                0,
                0,
                0,
                0,
                0
              ],
              "sum_hessian": [
                8.3E1,
                6.8E1,
                1.5E1,
                6.3E1,
                5E0,
                6.1E1,
                2E0,
                1.1E1,
                4E0,
                5.3E1,
                8E0,
                2.1E1,
                3.2E1,
                1.1E1,
                2.1E1,
                1.9E1,
                2E0,
                1.8E1,
                3E0,
                6E0,
                5E0,
                2E0,
                9E0,
                2E0,
                2E0,
                6E0,
                1.3E1,
                1.1E1,
                2E0,
                1.5E1,
                3E0,
                4E0,
                2E0,
                6E0,
                2E0,
                2E0,
                3E0,
                4E0,
                2E0
              ],
              "tree_param": {
                "num_deleted": "0",
                "num_feature": "395",
                "num_nodes": "39",
                "size_leaf_vector": "1"
              }
            },
            {
              "base_weights": [
                3.692988E-2,
                -8.972596E0,
                4.050125E1,
                -1.4685486E1,
                6.0961746E1,
                -1.8415207E1,
                1.0607991E1,
                5.896826E1,
                -1.0618682E1,
                -1.3176494E1,
                -5.2035572E1,
                -1.6300657E1,
                2.809856E0,
                -4.187125E0,
                -2.6072401E1,
                -3.352509E1,
                6.72647E0,
                5.7031617E0,
                -2.6315715E0,
                -4.69612E0,
                -3.0619872E-1,
                4.825416E0,
                -2.314316E1,
                2.406926E0,
                6.688973E1,
                -3.6391544E0,
                1.2625914E0,
                3.7232373E0,
                3.0222273E-2,
                -6.756754E0,
                -3.5914733E0,
                -3.6113236E0,
                -1.3375242E0,
                8.700767E0,
                5.5981083E0,
                6.7636986E0,
                9.349422E0
              ],
              "categories": [],
              "categories_nodes": [],
              "categories_segments": [],
              "categories_sizes": [],
              "default_left": [
                0,
                0,
                0,
                0,
                0,
                0,
                0,
                0,
                0,
                0,
                0,
                0,
                0,
                0,
                0,
                0,
                0,
                0,
                0,
                0,
                0,
                0,
                0,
                0,
                0,
                0,
                0,
                0,
                0,
                0,
                0,
                0,
                0,
                0,
                0,
                0,
                0
              ],
              "id": 1,
              "left_children": [
                1,
                3,
                7,
                5,
                33,
                9,
                -1,
                23,
                25,
                11,
                29,
                13,
                -1,
                21,
                15,
                19,
                17,
                -1,
                -1,
                -1,
                -1,
                27,
                31,
                -1,
                35,
                -1,
                -1,
                -1,
                -1,
                -1,
                -1,
                -1,
                -1,
                -1,
                -1,
                -1,
                -1
              ],
              "loss_changes": [
                3.039557E4,
                2.7400998E4,
                1.4453479E4,
                2.5208578E4,
                2.4731055E2,
                1.064384E4,
                0E0,
                3.132461E3,
                1.9130602E3,
                6.2661787E3,
                6.939238E2,
                5.7988643E3,
                0E0,
                3.812185E3,
                6.6887754E3,
                4.613293E3,
                6.6160435E3,
                0E0,
                0E0,
                0E0,
                0E0,
                1.8754052E3,
                5.8769434E2,
                0E0,
                2.1613281E2,
                0E0,
                0E0,
                0E0,
                0E0,
                0E0,
                0E0,
                0E0,
                0E0,
                0E0,
                0E0,
                0E0,
                0E0
              ],
              "parents": [
                2147483647,
                0,
                0,
                1,
                1,
                3,
                3,
                2,
                2,
                5,
                5,
                9,
                9,
                11,
                11,
                14,
                14,
                16,
                16,
                15,
                15,
                13,
                13,
                7,
                7,
                8,
                8,
                21,
                21,
                10,
                10,
                22,
                22,
                4,
                4,
                24,
                24
              ],
              "right_children": [
                2,
                4,
                8,
                6,
                34,
                10,
                -1,
                24,
                26,
                12,
                30,
                14,
                -1,
                22,
                16,
                20,
                18,
                -1,
                -1,
                -1,
                -1,
                28,
                32,
                -1,
                36,
                -1,
                -1,
                -1,
                -1,
                -1,
                -1,
                -1,
                -1,
                -1,
                -1,
                -1,
                -1
              ],
              "split_conditions": [
                6.4E1,
                5E-1,
                1E0,
                1E0,
                3.2E1,
                2.5E3,
                1.0607991E1,
                1.12E2,
                7.5E1,
                4E-1,
                1E2,
                1E0,
                2.809856E0,
                1.02E2,
                9.3E2,
                2E2,
                3.9E1,
                5.7031617E0,
                -2.6315715E0,
                -4.69612E0,
                -3.0619872E-1,
                1.45E2,
                4.7E1,
                2.406926E0,
                7.2E0,
                -3.6391544E0,
                1.2625914E0,
                3.7232373E0,
                3.0222273E-2,
                -6.756754E0,
                -3.5914733E0,
                -3.6113236E0,
                -1.3375242E0,
                8.700767E0,
                5.5981083E0,
                6.7636986E0,
                9.349422E0
              ],
              "split_indices": [
                0,
                112,
                364,
                97,
                0,
                6,
                0,
                7,
                0,
                121,
                271,
                88,
                0,
                5,
                5,
                6,
                0,
                0,
                0,
                0,
                0,
                7,
                0,
                0,
                3,
                0,
                0,
                0,
                0,
                0,
                0,
                0,
                0,
                0,
                0,
                0,
                0
              ],
              "split_type": [
                0,
                0,
                0,
                0,
                0,
                0,
                0,
                0,
                0,
                0,
                0,
                0,
                0,
                0,
                0,
                0,
                0,
                0,
                0,
                0,
                0,
                0,
                0,
                0,
                0,
                0,
                0,
                0,
                0,
                0,
                0,
                0,
                0,
                0,
                0,
                0,
                0
              ],
              "sum_hessian": [
                8.3E1,
                6.8E1,
                1.5E1,
                6.3E1,
                5E0,
                6.1E1,
                2E0,
                1.1E1,
                4E0,
                5.3E1,
                8E0,
                4.9E1,
                4E0,
                2.2E1,
                2.7E1,
                2.2E1,
                5E0,
                2E0,
                3E0,
                1.8E1,
                4E0,
                1.5E1,
                7E0,
                2E0,
                9E0,
                2E0,
                2E0,
                2E0,
                1.3E1,
                6E0,
                2E0,
                4E0,
                3E0,
                2E0,
                3E0,
                6E0,
                3E0
              ],
              "tree_param": {
                "num_deleted": "0",
                "num_feature": "395",
                "num_nodes": "37",
                "size_leaf_vector": "1"
              }
            },
            {
              "base_weights": [
                9.995755E-2,
                -7.888257E0,
                3.5977203E1,
                -1.2974125E1,
                5.4364784E1,
                -1.6301144E1,
                9.475496E0,
                5.2401096E1,
                -9.482541E0,
                -1.1641763E1,
                -4.6203957E1,
                -2.3925163E1,
                -3.4872437E0,
                1.4097482E1,
                -1.2745268E1,
                -2.828906E1,
                1.9092015E0,
                -7.5872397E0,
                -4.830215E0,
                2.8601906E1,
                -4.2956394E-1,
                2.1499658E0,
                5.941655E1,
                -3.2506435E0,
                1.1277993E0,
                -3.1090776E1,
                -4.449967E-1,
                6.5807454E-2,
                -1.8180776E0,
                -3.9589415E0,
                -9.840312E-1,
                -4.274725E0,
                -6.8797655E0,
                4.5009356E0,
                2.575564E0,
                5.9877005E0,
                8.343958E0,
                7.7718844E0,
                4.983231E0
              ],
              "categories": [],
              "categories_nodes": [],
              "categories_segments": [],
              "categories_sizes": [],
              "default_left": [
                0,
                0,
                0,
                0,
                0,
                0,
                0,
                0,
                0,
                0,
                0,
                0,
                0,
                0,
                0,
                0,
                0,
                0,
                0,
                0,
                0,
                0,
                0,
                0,
                0,
                0,
                0,
                0,
                0,
                0,
                0,
                0,
                0,
                0,
                0,
                0,
                0,
                0,
                0
              ],
              "id": 2,
              "left_children": [
                1,
                3,
                7,
                5,
                37,
                9,
                -1,
                21,
                23,
                11,
                31,
                15,
                13,
                19,
                17,
                25,
                -1,
                27,
                -1,
                33,
                -1,
                -1,
                35,
                -1,
                -1,
                29,
                -1,
                -1,
                -1,
                -1,
                -1,
                -1,
                -1,
                -1,
                -1,
                -1,
                -1,
                -1,
                -1
              ],
              "loss_changes": [
                2.389486E4,
                2.1713068E4,
                1.1431881E4,
                2.0053371E4,
                2.0708496E2,
                8.420201E3,
                0E0,
                2.455254E3,
                1.5265918E3,
                5.309137E3,
                5.9300977E2,
                3.8121504E3,
                5.2723306E3,
                2.9063828E3,
                3.0728733E3,
                1.2900381E3,
                0E0,
                1.1905361E3,
                0E0,
                2.4019092E2,
                0E0,
                0E0,
                2.1202734E2,
                0E0,
                0E0,
                1.0619863E3,
                0E0,
                0E0,
                0E0,
                0E0,
                0E0,
                0E0,
                0E0,
                0E0,
                0E0,
                0E0,
                0E0,
                0E0,
                0E0
              ],
              "parents": [
                2147483647,
                0,
                0,
                1,
                1,
                3,
                3,
                2,
                2,
                5,
                5,
                9,
                9,
                12,
                12,
                11,
                11,
                14,
                14,
                13,
                13,
                7,
                7,
                8,
                8,
                15,
                15,
                17,
                17,
                25,
                25,
                10,
                10,
                19,
                19,
                22,
                22,
                4,
                4
              ],
              "right_children": [
                2,
                4,
                8,
                6,
                38,
                10,
                -1,
                22,
                24,
                12,
                32,
                16,
                14,
                20,
                18,
                26,
                -1,
                28,
                -1,
                34,
                -1,
                -1,
                36,
                -1,
                -1,
                30,
                -1,
                -1,
                -1,
                -1,
                -1,
                -1,
                -1,
                -1,
                -1,
                -1,
                -1,
                -1,
                -1
              ],
              "split_conditions": [
                6.4E1,
                5E-1,
                1E0,
                1E0,
                3.2E1,
                2.5E3,
                9.475496E0,
                1.12E2,
                7.5E1,
                2E1,
                7E0,
                9.3E2,
                1E0,
                1.2E0,
                2.9E0,
                2.09E2,
                1.9092015E0,
                2E0,
                -4.830215E0,
                8.34E1,
                -4.2956394E-1,
                2.1499658E0,
                6.9E1,
                -3.2506435E0,
                1.1277993E0,
                2.2E2,
                -4.449967E-1,
                6.5807454E-2,
                -1.8180776E0,
                -3.9589415E0,
                -9.840312E-1,
                -4.274725E0,
                -6.8797655E0,
                4.5009356E0,
                2.575564E0,
                5.9877005E0,
                8.343958E0,
                7.7718844E0,
                4.983231E0
              ],
              "split_indices": [
                0,
                112,
                364,
                97,
                0,
                6,
                0,
                7,
                0,
                1,
                3,
                5,
                364,
                214,
                148,
                7,
                0,
                87,
                0,
                5,
                0,
                0,
                0,
                0,
                0,
                6,
                0,
                0,
                0,
                0,
                0,
                0,
                0,
                0,
                0,
                0,
                0,
                0,
                0
              ],
              "split_type": [
                0,
                0,
                0,
                0,
                0,
                0,
                0,
                0,
                0,
                0,
                0,
                0,
                0,
                0,
                0,
                0,
                0,
                0,
                0,
                0,
                0,
                0,
                0,
                0,
                0,
                0,
                0,
                0,
                0,
                0,
                0,
                0,
                0,
                0,
                0,
                0,
                0,
                0,
                0
              ],
              "sum_hessian": [
                8.3E1,
                6.8E1,
                1.5E1,
                6.3E1,
                5E0,
                6.1E1,
                2E0,
                1.1E1,
                4E0,
                5.3E1,
                8E0,
                2.1E1,
                3.2E1,
                1.1E1,
                2.1E1,
                1.9E1,
                2E0,
                1.8E1,
                3E0,
                6E0,
                5E0,
                2E0,
                9E0,
                2E0,
                2E0,
                1.7E1,
                2E0,
                9E0,
                9E0,
                1.5E1,
                2E0,
                5E0,
                3E0,
                2E0,
                4E0,
                6E0,
                3E0,
                2E0,
                3E0
              ],
              "tree_param": {
                "num_deleted": "0",
                "num_feature": "395",
                "num_nodes": "39",
                "size_leaf_vector": "1"
              }
            },
            {
              "base_weights": [
                1.3703991E-1,
                -6.9481926E0,
                3.195889E1,
                -1.1477052E1,
                4.8482075E1,
                -1.4445394E1,
                8.463905E0,
                4.6565933E1,
                -8.467695E0,
                -1.0296827E1,
                -4.1070145E1,
                -2.116719E1,
                -3.0800562E0,
                1.2563419E1,
                -1.1316753E1,
                -2.5044506E1,
                1.7053777E0,
                -6.7199516E0,
                -4.29968E0,
                2.5480066E1,
                -3.81268E-1,
                1.9204384E0,
                5.277882E1,
                -2.9036095E0,
                1.0073968E0,
                5.4107684E-1,
                -1.4445457E0,
                -1.2835624E1,
                -3.0414742E1,
                -4.1547775E0,
                -1.3867416E0,
                -6.295289E-1,
                -3.0253468E0,
                -4.6001347E1,
                -2.7516882E0,
                5.2771335E0,
                7.4923096E0,
                4.0204215E0,
                2.288535E0,
                6.9421687E0,
                4.4358897E0,
                -4.2867355E0,
                -6.1241155E0
              ],
              "categories": [],
              "categories_nodes": [],
              "categories_segments": [],
              "categories_sizes": [],
              "default_left": [
                0,
                0,
                0,
                0,
                0,
                0,
                0,
                0,
                0,
                0,
                0,
                0,
                0,
                0,
                0,
                0,
                0,
                0,
                0,
                0,
                0,
                0,
                0,
                0,
                0,
                0,
                0,
                0,
                0,
                0,
                0,
                0,
                0,
                0,
                0,
                0,
                0,
                0,
                0,
                0,
                0,
                0,
                0
              ],
              "id": 3,
              "left_children": [
                1,
                3,
                7,
                5,
                39,
                9,
                -1,
                21,
                23,
                11,
                33,
                15,
                13,
                19,
                17,
                27,
                -1,
                25,
                -1,
                37,
                -1,
                -1,
                35,
                -1,
                -1,
                -1,
                -1,
                31,
                29,
                -1,
                -1,
                -1,
                -1,
                41,
                -1,
                -1,
                -1,
                -1,
                -1,
                -1,
                -1,
                -1,
                -1
              ],
              "loss_changes": [
                1.879822E4,
                1.7215037E4,
                9.042219E3,
                1.5958464E4,
                1.729248E2,
                6.675332E3,
                0E0,
                1.9242656E3,
                1.2182148E3,
                4.157845E3,
                4.984922E2,
                3.0086055E3,
                4.1728496E3,
                2.304839E3,
                2.4403413E3,
                1.1818525E3,
                0E0,
                1.1834752E3,
                0E0,
                1.9615625E2,
                0E0,
                0E0,
                2.4757031E2,
                0E0,
                0E0,
                0E0,
                0E0,
                5.743549E2,
                1.1944785E3,
                0E0,
                0E0,
                0E0,
                0E0,
                9.517578E0,
                0E0,
                0E0,
                0E0,
                0E0,
                0E0,
                0E0,
                0E0,
                0E0,
                0E0
              ],
              "parents": [
                2147483647,
                0,
                0,
                1,
                1,
                3,
                3,
                2,
                2,
                5,
                5,
                9,
                9,
                12,
                12,
                11,
                11,
                14,
                14,
                13,
                13,
                7,
                7,
                8,
                8,
                17,
                17,
                15,
                15,
                28,
                28,
                27,
                27,
                10,
                10,
                22,
                22,
                19,
                19,
                4,
                4,
                33,
                33
              ],
              "right_children": [
                2,
                4,
                8,
                6,
                40,
                10,
                -1,
                22,
                24,
                12,
                34,
                16,
                14,
                20,
                18,
                28,
                -1,
                26,
                -1,
                38,
                -1,
                -1,
                36,
                -1,
                -1,
                -1,
                -1,
                32,
                30,
                -1,
                -1,
                -1,
                -1,
                42,
                -1,
                -1,
                -1,
                -1,
                -1,
                -1,
                -1,
                -1,
                -1
              ],
              "split_conditions": [
                6.4E1,
                5E-1,
                1E0,
                1E0,
                3.2E1,
                2.5E3,
                8.463905E0,
                1.12E2,
                7.5E1,
                2E1,
                1E2,
                9.3E2,
                1E0,
                1.2E0,
                2.9E0,
                1E0,
                1.7053777E0,
                6.7E0,
                -4.29968E0,
                8.34E1,
                -3.81268E-1,
                1.9204384E0,
                7.2E0,
                -2.9036095E0,
                1.0073968E0,
                5.4107684E-1,
                -1.4445457E0,
                1.93E2,
                1.93E2,
                -4.1547775E0,
                -1.3867416E0,
                -6.295289E-1,
                -3.0253468E0,
                7E0,
                -2.7516882E0,
                5.2771335E0,
                7.4923096E0,
                4.0204215E0,
                2.288535E0,
                6.9421687E0,
                4.4358897E0,
                -4.2867355E0,
                -6.1241155E0
              ],
              "split_indices": [
                0,
                112,
                364,
                97,
                0,
                6,
                0,
                7,
                0,
                1,
                271,
                5,
                364,
                214,
                148,
                88,
                0,
                3,
                0,
                5,
                0,
                0,
                3,
                0,
                0,
                0,
                0,
                6,
                6,
                0,
                0,
                0,
                0,
                3,
                0,
                0,
                0,
                0,
                0,
                0,
                0,
                0,
                0
              ],
              "split_type": [
                0,
                0,
                0,
                0,
                0,
                0,
                0,
                0,
                0,
                0,
                0,
                0,
                0,
                0,
                0,
                0,
                0,
                0,
                0,
                0,
                0,
                0,
                0,
                0,
                0,
                0,
                0,
                0,
                0,
                0,
                0,
                0,
                0,
                0,
                0,
                0,
                0,
                0,
                0,
                0,
                0,
                0,
                0
              ],
              "sum_hessian": [
                8.3E1,
                6.8E1,
                1.5E1,
                6.3E1,
                5E0,
                6.1E1,
                2E0,
                1.1E1,
                4E0,
                5.3E1,
                8E0,
                2.1E1,
                3.2E1,
                1.1E1,
                2.1E1,
                1.9E1,
                2E0,
                1.8E1,
                3E0,
                6E0,
                5E0,
                2E0,
                9E0,
                2E0,
                2E0,
                6E0,
                1.2E1,
                6E0,
                1.3E1,
                1E1,
                3E0,
                4E0,
                2E0,
                6E0,
                2E0,
                6E0,
                3E0,
                2E0,
                4E0,
                2E0,
                3E0,
                3E0,
                3E0
              ],
              "tree_param": {
                "num_deleted": "0",
                "num_feature": "395",
                "num_nodes": "43",
                "size_leaf_vector": "1"
              }
            },
            {
              "base_weights": [
                1.4897114E-1,
                -6.138897E0,
                2.8390022E1,
                -1.0173347E1,
                4.323627E1,
                -1.2822401E1,
                7.5603104E0,
                4.138149E1,
                -7.561193E0,
                -9.120439E0,
                -3.658116E1,
                -1.1381497E1,
                2.0791693E0,
                -5.0466294E0,
                -2.311894E1,
                -1.0569154E0,
                -2.5771734E1,
                -5.3589505E-1,
                4.641714E0,
                -2.7385254E1,
                9.8441356E-1,
                1.7154149E0,
                4.6883545E1,
                -2.5936239E0,
                8.9984816E-1,
                -4.0151544E0,
                -1.2717342E0,
                -3.462755E0,
                -1.2834296E0,
                -4.095046E1,
                -2.457922E0,
                4.671922E0,
                6.6856585E0,
                6.201032E0,
                3.9486663E0,
                -3.8158953E0,
                -5.451463E0
              ],
              "categories": [],
              "categories_nodes": [],
              "categories_segments": [],
              "categories_sizes": [],
              "default_left": [
                0,
                0,
                0,
                0,
                0,
                0,
                0,
                0,
                0,
                0,
                0,
                0,
                0,
                0,
                0,
                0,
                0,
                0,
                0,
                0,
                0,
                0,
                0,
                0,
                0,
                0,
                0,
                0,
                0,
                0,
                0,
                0,
                0,
                0,
                0,
                0,
                0
              ],
              "id": 4,
              "left_children": [
                1,
                3,
                7,
                5,
                33,
                9,
                -1,
                21,
                23,
                11,
                29,
                13,
                -1,
                15,
                19,
                17,
                25,
                -1,
                -1,
                27,
                -1,
                -1,
                31,
                -1,
                -1,
                -1,
                -1,
                -1,
                -1,
                35,
                -1,
                -1,
                -1,
                -1,
                -1,
                -1,
                -1
              ],
              "loss_changes": [
                1.4805586E4,
                1.3659784E4,
                7.152383E3,
                1.2706945E4,
                1.4403027E2,
                5.3156113E3,
                0E0,
                1.5080078E3,
                9.721476E2,
                3.2784346E3,
                3.8938184E2,
                3.6328691E3,
                0E0,
                2.6535378E3,
                2.3583389E3,
                3.964904E3,
                5.9489404E2,
                0E0,
                0E0,
                5.1355566E2,
                0E0,
                0E0,
                2.2267188E2,
                0E0,
                0E0,
                0E0,
                0E0,
                0E0,
                0E0,
                6.658203E0,
                0E0,
                0E0,
                0E0,
                0E0,
                0E0,
                0E0,
                0E0
              ],
              "parents": [
                2147483647,
                0,
                0,
                1,
                1,
                3,
                3,
                2,
                2,
                5,
                5,
                9,
                9,
                11,
                11,
                13,
                13,
                15,
                15,
                14,
                14,
                7,
                7,
                8,
                8,
                16,
                16,
                19,
                19,
                10,
                10,
                22,
                22,
                4,
                4,
                29,
                29
              ],
              "right_children": [
                2,
                4,
                8,
                6,
                34,
                10,
                -1,
                22,
                24,
                12,
                30,
                14,
                -1,
                16,
                20,
                18,
                26,
                -1,
                -1,
                28,
                -1,
                -1,
                32,
                -1,
                -1,
                -1,
                -1,
                -1,
                -1,
                36,
                -1,
                -1,
                -1,
                -1,
                -1,
                -1,
                -1
              ],
              "split_conditions": [
                6.4E1,
                5E-1,
                1E0,
                1E0,
                3.2E1,
                2.5E3,
                7.5603104E0,
                1.12E2,
                7.5E1,
                4E-1,
                1E2,
                2E0,
                2.0791693E0,
                6.1E1,
                2.5E-2,
                9.3E2,
                6.2E1,
                -5.3589505E-1,
                4.641714E0,
                2.05E1,
                9.8441356E-1,
                1.7154149E0,
                6.9E1,
                -2.5936239E0,
                8.9984816E-1,
                -4.0151544E0,
                -1.2717342E0,
                -3.462755E0,
                -1.2834296E0,
                7E0,
                -2.457922E0,
                4.671922E0,
                6.6856585E0,
                6.201032E0,
                3.9486663E0,
                -3.8158953E0,
                -5.451463E0
              ],
              "split_indices": [
                0,
                112,
                364,
                97,
                0,
                6,
                0,
                7,
                0,
                121,
                271,
                87,
                0,
                0,
                150,
                5,
                0,
                0,
                0,
                4,
                0,
                0,
                0,
                0,
                0,
                0,
                0,
                0,
                0,
                3,
                0,
                0,
                0,
                0,
                0,
                0,
                0
              ],
              "split_type": [
                0,
                0,
                0,
                0,
                0,
                0,
                0,
                0,
                0,
                0,
                0,
                0,
                0,
                0,
                0,
                0,
                0,
                0,
                0,
                0,
                0,
                0,
                0,
                0,
                0,
                0,
                0,
                0,
                0,
                0,
                0,
                0,
                0,
                0,
                0,
                0,
                0
              ],
              "sum_hessian": [
                8.3E1,
                6.8E1,
                1.5E1,
                6.3E1,
                5E0,
                6.1E1,
                2E0,
                1.1E1,
                4E0,
                5.3E1,
                8E0,
                4.9E1,
                4E0,
                3.2E1,
                1.7E1,
                2.7E1,
                5E0,
                2.5E1,
                2E0,
                1.5E1,
                2E0,
                2E0,
                9E0,
                2E0,
                2E0,
                3E0,
                2E0,
                1.3E1,
                2E0,
                6E0,
                2E0,
                6E0,
                3E0,
                2E0,
                3E0,
                3E0,
                3E0
              ],
              "tree_param": {
                "num_deleted": "0",
                "num_feature": "395",
                "num_nodes": "37",
                "size_leaf_vector": "1"
              }
            },
            {
              "base_weights": [
                1.6360737E-1,
                -5.4151263E0,
                2.5220032E1,
                -9.00853E0,
                3.8558403E1,
                -1.1372372E1,
                6.753182E0,
                3.677479E1,
                -6.7514668E0,
                -8.067481E0,
                -3.2583164E1,
                -1.7122135E1,
                -2.058545E0,
                1.0558999E1,
                -8.706595E0,
                -2.0338478E1,
                1.4603819E0,
                -4.798876E0,
                -3.5542393E0,
                2.1113268E1,
                -2.7815095E-1,
                1.5322794E0,
                4.1647182E1,
                2.275855E-1,
                -1.3363417E0,
                -2.3167324E0,
                8.037815E-1,
                -1.0809008E1,
                -2.45175E1,
                -3.3644328E0,
                -1.0684068E0,
                -4.7882292E-1,
                -2.6451538E0,
                -3.645434E1,
                -2.1955175E0,
                1.7568829E0,
                3.5976589E0,
                4.1139636E0,
                6.0087757E0,
                5.539018E0,
                3.5149581E0,
                -3.39677E0,
                -4.8526926E0
              ],
              "categories": [],
              "categories_nodes": [],
              "categories_segments": [],
              "categories_sizes": [],
              "default_left": [
                0,
                0,
                0,
                0,
                0,
                0,
                0,
                0,
                0,
                0,
                0,
                0,
                0,
                0,
                0,
                0,
                0,
                0,
                0,
                0,
                0,
                0,
                0,
                0,
                0,
                0,
                0,
                0,
                0,
                0,
                0,
                0,
                0,
                0,
                0,
                0,
                0,
                0,
                0,
                0,
                0,
                0,
                0
              ],
              "id": 5,
              "left_children": [
                1,
                3,
                7,
                5,
                39,
                9,
                -1,
                21,
                25,
                11,
                33,
                15,
                13,
                19,
                17,
                27,
                -1,
                23,
                -1,
                35,
                -1,
                -1,
                37,
                -1,
                -1,
                -1,
                -1,
                31,
                29,
                -1,
                -1,
                -1,
                -1,
                41,
                -1,
                -1,
                -1,
                -1,
                -1,
                -1,
                -1,
                -1,
                -1
              ],
              "loss_changes": [
                1.1654674E4,
                1.0834869E4,
                5.6576865E3,
                1.0115331E4,
                1.1967334E2,
                4.2366855E3,
                0E0,
                1.1816621E3,
                7.7579865E2,
                2.8853035E3,
                3.040205E2,
                2.0678037E3,
                2.7163196E3,
                1.5390874E3,
                1.7731731E3,
                7.1184863E2,
                0E0,
                8.234192E2,
                0E0,
                2.743462E2,
                0E0,
                0E0,
                2.3520898E2,
                0E0,
                0E0,
                0E0,
                0E0,
                4.727196E2,
                8.275498E2,
                0E0,
                0E0,
                0E0,
                0E0,
                4.491211E0,
                0E0,
                0E0,
                0E0,
                0E0,
                0E0,
                0E0,
                0E0,
                0E0,
                0E0
              ],
              "parents": [
                2147483647,
                0,
                0,
                1,
                1,
                3,
                3,
                2,
                2,
                5,
                5,
                9,
                9,
                12,
                12,
                11,
                11,
                14,
                14,
                13,
                13,
                7,
                7,
                17,
                17,
                8,
                8,
                15,
                15,
                28,
                28,
                27,
                27,
                10,
                10,
                19,
                19,
                22,
                22,
                4,
                4,
                33,
                33
              ],
              "right_children": [
                2,
                4,
                8,
                6,
                40,
                10,
                -1,
                22,
                26,
                12,
                34,
                16,
                14,
                20,
                18,
                28,
                -1,
                24,
                -1,
                36,
                -1,
                -1,
                38,
                -1,
                -1,
                -1,
                -1,
                32,
                30,
                -1,
                -1,
                -1,
                -1,
                42,
                -1,
                -1,
                -1,
                -1,
                -1,
                -1,
                -1,
                -1,
                -1
              ],
              "split_conditions": [
                6.4E1,
                5E-1,
                1E0,
                1E0,
                3.2E1,
                2.5E3,
                6.753182E0,
                1.12E2,
                7.5E1,
                2E1,
                1E2,
                9.3E2,
                1E0,
                1.2E0,
                2.9E0,
                1E0,
                1.4603819E0,
                2E0,
                -3.5542393E0,
                7.5E0,
                -2.7815095E-1,
                1.5322794E0,
                7.2E0,
                2.275855E-1,
                -1.3363417E0,
                -2.3167324E0,
                8.037815E-1,
                1.93E2,
                1.93E2,
                -3.3644328E0,
                -1.0684068E0,
                -4.7882292E-1,
                -2.6451538E0,
                7E0,
                -2.1955175E0,
                1.7568829E0,
                3.5976589E0,
                4.1139636E0,
                6.0087757E0,
                5.539018E0,
                3.5149581E0,
                -3.39677E0,
                -4.8526926E0
              ],
              "split_indices": [
                0,
                112,
                364,
                97,
                0,
                6,
                0,
                7,
                0,
                1,
                271,
                5,
                364,
                214,
                148,
                88,
                0,
                87,
                0,
                4,
                0,
                0,
                3,
                0,
                0,
                0,
                0,
                6,
                6,
                0,
                0,
                0,
                0,
                3,
                0,
                0,
                0,
                0,
                0,
                0,
                0,
                0,
                0
              ],
              "split_type": [
                0,
                0,
                0,
                0,
                0,
                0,
                0,
                0,
                0,
                0,
                0,
                0,
                0,
                0,
                0,
                0,
                0,
                0,
                0,
                0,
                0,
                0,
                0,
                0,
                0,
                0,
                0,
                0,
                0,
                0,
                0,
                0,
                0,
                0,
                0,
                0,
                0,
                0,
                0,
                0,
                0,
                0,
                0
              ],
              "sum_hessian": [
                8.3E1,
                6.8E1,
                1.5E1,
                6.3E1,
                5E0,
                6.1E1,
                2E0,
                1.1E1,
                4E0,
                5.3E1,
                8E0,
                2.1E1,
                3.2E1,
                1.1E1,
                2.1E1,
                1.9E1,
                2E0,
                1.8E1,
                3E0,
                6E0,
                5E0,
                2E0,
                9E0,
                9E0,
                9E0,
                2E0,
                2E0,
                6E0,
                1.3E1,
                1E1,
                3E0,
                4E0,
                2E0,
                6E0,
                2E0,
                4E0,
                2E0,
                6E0,
                3E0,
                2E0,
                3E0,
                3E0,
                3E0
              ],
              "tree_param": {
                "num_deleted": "0",
                "num_feature": "395",
                "num_nodes": "43",
                "size_leaf_vector": "1"
              }
            },
            {
              "base_weights": [
                1.6607472E-1,
                -4.7851505E0,
                2.2404573E1,
                -7.986478E0,
                3.4386974E1,
                -1.0096159E1,
                6.032222E0,
                3.2681767E1,
                -6.0281854E0,
                -7.1471996E0,
                -2.9022444E1,
                -1.5180329E1,
                -1.8158915E0,
                1.1759263E1,
                -7.1831923E0,
                -1.8041975E1,
                1.3044736E0,
                3.5619686E0,
                -1.2894187E1,
                -2.3519268E0,
                -4.9571988E-1,
                1.3686953E0,
                3.699648E1,
                3.346244E0,
                2.1643797E1,
                -2.0694015E0,
                7.179711E-1,
                -1.5764749E1,
                -4.0096784E0,
                -6.694661E-1,
                -2.3058257E0,
                -6.0872406E-1,
                1.8186275E0,
                1.4727988E0,
                -2.4687833E-1,
                -3.245206E1,
                -1.9611269E0,
                3.6425455E0,
                5.360718E0,
                3.223006E0,
                1.6051688E0,
                4.9476805E0,
                3.1288865E0,
                -3.0236802E0,
                -4.3196898E0
              ],
              "categories": [],
              "categories_nodes": [],
              "categories_segments": [],
              "categories_sizes": [],
              "default_left": [
                0,
                0,
                0,
                0,
                0,
                0,
                0,
                0,
                0,
                0,
                0,
                0,
                0,
                0,
                0,
                0,
                0,
                0,
                0,
                0,
                0,
                0,
                0,
                0,
                0,
                0,
                0,
                0,
                0,
                0,
                0,
                0,
                0,
                0,
                0,
                0,
                0,
                0,
                0,
                0,
                0,
                0,
                0,
                0,
                0
              ],
              "id": 6,
              "left_children": [
                1,
                3,
                7,
                5,
                41,
                9,
                -1,
                21,
                25,
                11,
                35,
                15,
                13,
                23,
                17,
                27,
                -1,
                33,
                19,
                -1,
                -1,
                -1,
                37,
                31,
                39,
                -1,
                -1,
                29,
                -1,
                -1,
                -1,
                -1,
                -1,
                -1,
                -1,
                43,
                -1,
                -1,
                -1,
                -1,
                -1,
                -1,
                -1,
                -1,
                -1
              ],
              "loss_changes": [
                9.180572E3,
                8.598234E3,
                4.4755596E3,
                8.054947E3,
                9.9211426E1,
                3.3732017E3,
                0E0,
                9.2586035E2,
                6.1912085E2,
                2.2709692E3,
                2.3725879E2,
                1.6364062E3,
                2.3600151E3,
                7.479469E2,
                1.43202E3,
                6.101621E2,
                0E0,
                4.277245E2,
                9.375437E2,
                0E0,
                0E0,
                0E0,
                2.0320703E2,
                5.6037463E2,
                1.2389368E2,
                0E0,
                0E0,
                6.685215E2,
                0E0,
                0E0,
                0E0,
                0E0,
                0E0,
                0E0,
                0E0,
                2.8583984E0,
                0E0,
                0E0,
                0E0,
                0E0,
                0E0,
                0E0,
                0E0,
                0E0,
                0E0
              ],
              "parents": [
                2147483647,
                0,
                0,
                1,
                1,
                3,
                3,
                2,
                2,
                5,
                5,
                9,
                9,
                12,
                12,
                11,
                11,
                14,
                14,
                18,
                18,
                7,
                7,
                13,
                13,
                8,
                8,
                15,
                15,
                27,
                27,
                23,
                23,
                17,
                17,
                10,
                10,
                22,
                22,
                24,
                24,
                4,
                4,
                35,
                35
              ],
              "right_children": [
                2,
                4,
                8,
                6,
                42,
                10,
                -1,
                22,
                26,
                12,
                36,
                16,
                14,
                24,
                18,
                28,
                -1,
                34,
                20,
                -1,
                -1,
                -1,
                38,
                32,
                40,
                -1,
                -1,
                30,
                -1,
                -1,
                -1,
                -1,
                -1,
                -1,
                -1,
                44,
                -1,
                -1,
                -1,
                -1,
                -1,
                -1,
                -1,
                -1,
                -1
              ],
              "split_conditions": [
                6.4E1,
                5E-1,
                1E0,
                1E0,
                3.2E1,
                2.5E3,
                6.032222E0,
                1.12E2,
                7.5E1,
                2E1,
                1E2,
                9.3E2,
                6.8E0,
                1.7E1,
                1E0,
                1E0,
                1.3044736E0,
                1.2E0,
                3E2,
                -2.3519268E0,
                -4.9571988E-1,
                1.3686953E0,
                6.9E1,
                1.72E2,
                8.34E1,
                -2.0694015E0,
                7.179711E-1,
                1E0,
                -4.0096784E0,
                -6.694661E-1,
                -2.3058257E0,
                -6.0872406E-1,
                1.8186275E0,
                1.4727988E0,
                -2.4687833E-1,
                7E0,
                -1.9611269E0,
                3.6425455E0,
                5.360718E0,
                3.223006E0,
                1.6051688E0,
                4.9476805E0,
                3.1288865E0,
                -3.0236802E0,
                -4.3196898E0
              ],
              "split_indices": [
                0,
                112,
                364,
                97,
                0,
                6,
                0,
                7,
                0,
                1,
                271,
                5,
                3,
                2,
                364,
                382,
                0,
                214,
                5,
                0,
                0,
                0,
                0,
                7,
                5,
                0,
                0,
                88,
                0,
                0,
                0,
                0,
                0,
                0,
                0,
                3,
                0,
                0,
                0,
                0,
                0,
                0,
                0,
                0,
                0
              ],
              "split_type": [
                0,
                0,
                0,
                0,
                0,
                0,
                0,
                0,
                0,
                0,
                0,
                0,
                0,
                0,
                0,
                0,
                0,
                0,
                0,
                0,
                0,
                0,
                0,
                0,
                0,
                0,
                0,
                0,
                0,
                0,
                0,
                0,
                0,
                0,
                0,
                0,
                0,
                0,
                0,
                0,
                0,
                0,
                0,
                0,
                0
              ],
              "sum_hessian": [
                8.3E1,
                6.8E1,
                1.5E1,
                6.3E1,
                5E0,
                6.1E1,
                2E0,
                1.1E1,
                4E0,
                5.3E1,
                8E0,
                2.1E1,
                3.2E1,
                9E0,
                2.3E1,
                1.9E1,
                2E0,
                8E0,
                1.5E1,
                8E0,
                7E0,
                2E0,
                9E0,
                5E0,
                4E0,
                2E0,
                2E0,
                1.7E1,
                2E0,
                5E0,
                1.2E1,
                3E0,
                2E0,
                3E0,
                5E0,
                6E0,
                2E0,
                6E0,
                3E0,
                2E0,
                2E0,
                2E0,
                3E0,
                3E0,
                3E0
              ],
              "tree_param": {
                "num_deleted": "0",
                "num_feature": "395",
                "num_nodes": "45",
                "size_leaf_vector": "1"
              }
            },
            {
              "base_weights": [
                1.7443688E-1,
                -4.218041E0,
                1.9903713E1,
                -7.069316E0,
                3.0667145E1,
                -8.951832E0,
                5.3882294E0,
                2.9044752E1,
                -5.382121E0,
                -6.3187175E0,
                -2.5851168E1,
                -1.3460712E1,
                -1.5786887E0,
                1.0510574E1,
                -6.35927E0,
                -4.0646095E0,
                -2.0332312E1,
                -1.2319024E1,
                2.72602E0,
                3.172896E0,
                -1.1426452E1,
                -6.5414457E0,
                -2.6914337E1,
                -2.8086358E-1,
                -2.0116267E0,
                1.2225748E0,
                3.286547E1,
                -6.211783E-1,
                1.5070468E1,
                -6.9263303E-1,
                -3.0743065E0,
                -1.848475E0,
                6.413214E-1,
                1.3110312E0,
                -2.1912168E-1,
                2.955853E0,
                1.1869712E0,
                -4.089068E0,
                -2.4390855E0,
                3.204336E0,
                4.8228955E0,
                -2.888938E1,
                -1.7517595E0,
                1.3138704E-2,
                -1.4791883E0,
                4.419473E0,
                2.7852204E0,
                -2.691569E0,
                -3.8452294E0
              ],
              "categories": [],
              "categories_nodes": [],
              "categories_segments": [],
              "categories_sizes": [],
              "default_left": [
                0,
                0,
                0,
                0,
                0,
                0,
                0,
                0,
                0,
                0,
                0,
                0,
                0,
                0,
                0,
                0,
                0,
                0,
                0,
                0,
                0,
                0,
                0,
                0,
                0,
                0,
                0,
                0,
                0,
                0,
                0,
                0,
                0,
                0,
                0,
                0,
                0,
                0,
                0,
                0,
                0,
                0,
                0,
                0,
                0,
                0,
                0,
                0,
                0
              ],
              "id": 7,
              "left_children": [
                1,
                3,
                7,
                5,
                45,
                9,
                -1,
                25,
                31,
                11,
                41,
                15,
                13,
                27,
                19,
                17,
                21,
                29,
                -1,
                33,
                23,
                43,
                37,
                -1,
                -1,
                -1,
                39,
                -1,
                35,
                -1,
                -1,
                -1,
                -1,
                -1,
                -1,
                -1,
                -1,
                -1,
                -1,
                -1,
                -1,
                47,
                -1,
                -1,
                -1,
                -1,
                -1,
                -1,
                -1
              ],
              "loss_changes": [
                7.2256733E3,
                6.819515E3,
                3.5405327E3,
                6.41171E3,
                8.206885E1,
                2.6893965E3,
                0E0,
                7.2533496E2,
                4.9409705E2,
                1.7950605E3,
                1.850581E2,
                1.350179E3,
                1.8718707E3,
                6.790151E2,
                1.1272603E3,
                2.1328296E3,
                1.0703223E3,
                6.119551E2,
                0E0,
                3.3870538E2,
                7.889042E2,
                1.7267863E2,
                2.5999854E2,
                0E0,
                0E0,
                0E0,
                2.0452734E2,
                0E0,
                3.1030847E2,
                0E0,
                0E0,
                0E0,
                0E0,
                0E0,
                0E0,
                0E0,
                0E0,
                0E0,
                0E0,
                0E0,
                0E0,
                1.6425781E0,
                0E0,
                0E0,
                0E0,
                0E0,
                0E0,
                0E0,
                0E0
              ],
              "parents": [
                2147483647,
                0,
                0,
                1,
                1,
                3,
                3,
                2,
                2,
                5,
                5,
                9,
                9,
                12,
                12,
                11,
                11,
                15,
                15,
                14,
                14,
                16,
                16,
                20,
                20,
                7,
                7,
                13,
                13,
                17,
                17,
                8,
                8,
                19,
                19,
                28,
                28,
                22,
                22,
                26,
                26,
                10,
                10,
                21,
                21,
                4,
                4,
                41,
                41
              ],
              "right_children": [
                2,
                4,
                8,
                6,
                46,
                10,
                -1,
                26,
                32,
                12,
                42,
                16,
                14,
                28,
                20,
                18,
                22,
                30,
                -1,
                34,
                24,
                44,
                38,
                -1,
                -1,
                -1,
                40,
                -1,
                36,
                -1,
                -1,
                -1,
                -1,
                -1,
                -1,
                -1,
                -1,
                -1,
                -1,
                -1,
                -1,
                48,
                -1,
                -1,
                -1,
                -1,
                -1,
                -1,
                -1
              ],
              "split_conditions": [
                6.4E1,
                5E-1,
                1E0,
                1E0,
                3.2E1,
                2.5E3,
                5.3882294E0,
                1.12E2,
                7.5E1,
                2E1,
                1E2,
                1.2E1,
                6.8E0,
                4.5E1,
                1E0,
                4.3E2,
                1E0,
                8.5E0,
                2.72602E0,
                1.2E0,
                1E0,
                1.7E2,
                1E0,
                -2.8086358E-1,
                -2.0116267E0,
                1.2225748E0,
                7.2E0,
                -6.211783E-1,
                1E0,
                -6.9263303E-1,
                -3.0743065E0,
                -1.848475E0,
                6.413214E-1,
                1.3110312E0,
                -2.1912168E-1,
                2.955853E0,
                1.1869712E0,
                -4.089068E0,
                -2.4390855E0,
                3.204336E0,
                4.8228955E0,
                7E0,
                -1.7517595E0,
                1.3138704E-2,
                -1.4791883E0,
                4.419473E0,
                2.7852204E0,
                -2.691569E0,
                -3.8452294E0
              ],
              "split_indices": [
                0,
                112,
                364,
                97,
                0,
                6,
                0,
                7,
                0,
                1,
                271,
                1,
                3,
                5,
                364,
                5,
                88,
                4,
                0,
                214,
                87,
                6,
                364,
                0,
                0,
                0,
                3,
                0,
                364,
                0,
                0,
                0,
                0,
                0,
                0,
                0,
                0,
                0,
                0,
                0,
                0,
                3,
                0,
                0,
                0,
                0,
                0,
                0,
                0
              ],
              "split_type": [
                0,
                0,
                0,
                0,
                0,
                0,
                0,
                0,
                0,
                0,
                0,
                0,
                0,
                0,
                0,
                0,
                0,
                0,
                0,
                0,
                0,
                0,
                0,
                0,
                0,
                0,
                0,
                0,
                0,
                0,
                0,
                0,
                0,
                0,
                0,
                0,
                0,
                0,
                0,
                0,
                0,
                0,
                0,
                0,
                0,
                0,
                0,
                0,
                0
              ],
              "sum_hessian": [
                8.3E1,
                6.8E1,
                1.5E1,
                6.3E1,
                5E0,
                6.1E1,
                2E0,
                1.1E1,
                4E0,
                5.3E1,
                8E0,
                2.1E1,
                3.2E1,
                9E0,
                2.3E1,
                9E0,
                1.2E1,
                7E0,
                2E0,
                8E0,
                1.5E1,
                4E0,
                8E0,
                6E0,
                9E0,
                2E0,
                9E0,
                2E0,
                7E0,
                5E0,
                2E0,
                2E0,
                2E0,
                3E0,
                5E0,
                2E0,
                5E0,
                3E0,
                5E0,
                6E0,
                3E0,
                6E0,
                2E0,
                2E0,
                2E0,
                2E0,
                3E0,
                3E0,
                3E0
              ],
              "tree_param": {
                "num_deleted": "0",
                "num_feature": "395",
                "num_nodes": "49",
                "size_leaf_vector": "1"
              }
            },
            {
              "base_weights": [
                1.6626123E-1,
                -2.2235427E0,
                3.0006805E1,
                -4.3429537E0,
                2.735001E1,
                -6.6963696E0,
                2.6294212E1,
                -8.162291E0,
                4.3804717E0,
                -1.6571411E1,
                -3.5028937E0,
                6.315464E0,
                -7.006643E0,
                4.5981016E0,
                5.663851E-1,
                -6.6680655E0,
                -2.1702255E1,
                -2.1681821E0,
                -4.104598E0,
                -8.723871E-1,
                7.5614476E-1,
                1.5067024E1,
                -1.1924247E0,
                1.1097519E0,
                -2.5250342E0,
                -1.6687384E1,
                -3.586118E0,
                3.1007838E0,
                7.2906965E-1,
                -1.2295489E0,
                -2.914504E0,
                -1.8240728E0,
                -8.9688057E-1,
                4.286249E0,
                2.5035286E0,
                3.947656E0,
                2.4793017E0,
                -2.3954628E-1,
                -2.317276E-3
              ],
              "categories": [],
              "categories_nodes": [],
              "categories_segments": [],
              "categories_sizes": [],
              "default_left": [
                0,
                0,
                0,
                0,
                0,
                0,
                0,
                0,
                0,
                0,
                0,
                0,
                0,
                0,
                0,
                0,
                0,
                0,
                0,
                0,
                0,
                0,
                0,
                0,
                0,
                0,
                0,
                0,
                0,
                0,
                0,
                0,
                0,
                0,
                0,
                0,
                0,
                0,
                0
              ],
              "id": 8,
              "left_children": [
                1,
                3,
                33,
                5,
                35,
                7,
                13,
                9,
                -1,
                15,
                11,
                21,
                17,
                -1,
                -1,
                31,
                25,
                -1,
                19,
                -1,
                -1,
                27,
                23,
                -1,
                -1,
                29,
                -1,
                -1,
                -1,
                -1,
                -1,
                -1,
                37,
                -1,
                -1,
                -1,
                -1,
                -1,
                -1
              ],
              "loss_changes": [
                5.9470493E3,
                4.857299E3,
                2.0612158E2,
                5.2349795E3,
                6.774756E1,
                4.414217E3,
                1.4221018E3,
                2.5413594E3,
                0E0,
                1.1486675E3,
                1.4593508E3,
                7.394845E2,
                1.0330715E3,
                0E0,
                0E0,
                4.1998447E2,
                5.913076E2,
                0E0,
                9.105981E2,
                0E0,
                0E0,
                4.9316553E2,
                1.3952068E3,
                0E0,
                0E0,
                4.6803125E2,
                0E0,
                0E0,
                0E0,
                0E0,
                0E0,
                0E0,
                5.0544643E0,
                0E0,
                0E0,
                0E0,
                0E0,
                0E0,
                0E0
              ],
              "parents": [
                2147483647,
                0,
                0,
                1,
                1,
                3,
                3,
                5,
                5,
                7,
                7,
                10,
                10,
                6,
                6,
                9,
                9,
                12,
                12,
                18,
                18,
                11,
                11,
                22,
                22,
                16,
                16,
                21,
                21,
                25,
                25,
                15,
                15,
                2,
                2,
                4,
                4,
                32,
                32
              ],
              "right_children": [
                2,
                4,
                34,
                6,
                36,
                8,
                14,
                10,
                -1,
                16,
                12,
                22,
                18,
                -1,
                -1,
                32,
                26,
                -1,
                20,
                -1,
                -1,
                28,
                24,
                -1,
                -1,
                30,
                -1,
                -1,
                -1,
                -1,
                -1,
                -1,
                38,
                -1,
                -1,
                -1,
                -1,
                -1,
                -1
              ],
              "split_conditions": [
                1.5E0,
                5E-1,
                6.5E1,
                1E0,
                3.2E1,
                3E0,
                1.41E2,
                1.9E1,
                4.3804717E0,
                9.8E1,
                6.8E0,
                2E0,
                9.2E1,
                4.5981016E0,
                5.663851E-1,
                4E0,
                1.45E1,
                -2.1681821E0,
                2.35E1,
                -8.723871E-1,
                7.5614476E-1,
                3.8E1,
                1.6E2,
                1.1097519E0,
                -2.5250342E0,
                4.1E1,
                -3.586118E0,
                3.1007838E0,
                7.2906965E-1,
                -1.2295489E0,
                -2.914504E0,
                -1.8240728E0,
                1E1,
                4.286249E0,
                2.5035286E0,
                3.947656E0,
                2.4793017E0,
                -2.3954628E-1,
                -2.317276E-3
              ],
              "split_indices": [
                206,
                112,
                0,
                352,
                0,
                107,
                7,
                1,
                0,
                5,
                3,
                87,
                5,
                0,
                0,
                4,
                4,
                0,
                4,
                0,
                0,
                1,
                6,
                0,
                0,
                278,
                0,
                0,
                0,
                0,
                0,
                0,
                0,
                0,
                0,
                0,
                0,
                0,
                0
              ],
              "split_type": [
                0,
                0,
                0,
                0,
                0,
                0,
                0,
                0,
                0,
                0,
                0,
                0,
                0,
                0,
                0,
                0,
                0,
                0,
                0,
                0,
                0,
                0,
                0,
                0,
                0,
                0,
                0,
                0,
                0,
                0,
                0,
                0,
                0,
                0,
                0,
                0,
                0,
                0,
                0
              ],
              "sum_hessian": [
                8.3E1,
                7.7E1,
                6E0,
                7.2E1,
                5E0,
                6.7E1,
                5E0,
                6.5E1,
                2E0,
                2.3E1,
                4.2E1,
                1.1E1,
                3.1E1,
                3E0,
                2E0,
                8E0,
                1.5E1,
                6E0,
                2.5E1,
                1.9E1,
                6E0,
                5E0,
                6E0,
                4E0,
                2E0,
                1E1,
                5E0,
                2E0,
                3E0,
                6E0,
                4E0,
                3E0,
                5E0,
                3E0,
                3E0,
                2E0,
                3E0,
                2E0,
                3E0
              ],
              "tree_param": {
                "num_deleted": "0",
                "num_feature": "395",
                "num_nodes": "39",
                "size_leaf_vector": "1"
              }
            },
            {
              "base_weights": [
                1.7592105E-1,
                -1.9492246E0,
                2.6712706E1,
                -3.837214E0,
                2.4391968E1,
                -5.930808E0,
                2.3414524E1,
                -7.2388353E0,
                3.912818E0,
                -1.4719921E1,
                -3.0934944E0,
                -1.5401719E0,
                -2.5645785E0,
                7.7148705E0,
                -6.193086E0,
                4.093062E0,
                5.059183E-1,
                4.3142173E-1,
                -1.1474007E0,
                -5.9399886E0,
                -1.9267658E1,
                1.6038778E0,
                -2.4287939E-1,
                -1.4818166E1,
                -3.1829314E0,
                -1.09049E0,
                -2.5897024E0,
                -1.6237228E0,
                -8.0311257E-1,
                3.815462E0,
                2.22855E0,
                3.5262089E0,
                2.2069836E0,
                -2.1397251E-1,
                -2.0625282E-3
              ],
              "categories": [],
              "categories_nodes": [],
              "categories_segments": [],
              "categories_sizes": [],
              "default_left": [
                0,
                0,
                0,
                0,
                0,
                0,
                0,
                0,
                0,
                0,
                0,
                0,
                0,
                0,
                0,
                0,
                0,
                0,
                0,
                0,
                0,
                0,
                0,
                0,
                0,
                0,
                0,
                0,
                0,
                0,
                0,
                0,
                0,
                0,
                0
              ],
              "id": 9,
              "left_children": [
                1,
                3,
                29,
                5,
                31,
                7,
                15,
                9,
                -1,
                19,
                11,
                13,
                -1,
                21,
                17,
                -1,
                -1,
                -1,
                -1,
                27,
                23,
                -1,
                -1,
                25,
                -1,
                -1,
                -1,
                -1,
                33,
                -1,
                -1,
                -1,
                -1,
                -1,
                -1
              ],
              "loss_changes": [
                4.7030874E3,
                3.8536506E3,
                1.6275293E2,
                4.142144E3,
                5.5811768E1,
                3.5132576E3,
                1.1251101E3,
                2.011343E3,
                0E0,
                9.02209E2,
                1.2304856E3,
                1.6959807E3,
                0E0,
                7.8737494E2,
                9.531561E2,
                0E0,
                0E0,
                0E0,
                0E0,
                3.3241116E2,
                4.647666E2,
                0E0,
                0E0,
                3.7037988E2,
                0E0,
                0E0,
                0E0,
                0E0,
                4.016361E0,
                0E0,
                0E0,
                0E0,
                0E0,
                0E0,
                0E0
              ],
              "parents": [
                2147483647,
                0,
                0,
                1,
                1,
                3,
                3,
                5,
                5,
                7,
                7,
                10,
                10,
                11,
                11,
                6,
                6,
                14,
                14,
                9,
                9,
                13,
                13,
                20,
                20,
                23,
                23,
                19,
                19,
                2,
                2,
                4,
                4,
                28,
                28
              ],
              "right_children": [
                2,
                4,
                30,
                6,
                32,
                8,
                16,
                10,
                -1,
                20,
                12,
                14,
                -1,
                22,
                18,
                -1,
                -1,
                -1,
                -1,
                28,
                24,
                -1,
                -1,
                26,
                -1,
                -1,
                -1,
                -1,
                34,
                -1,
                -1,
                -1,
                -1,
                -1,
                -1
              ],
              "split_conditions": [
                1.5E0,
                5E-1,
                6.5E1,
                1E0,
                3.2E1,
                3E0,
                1.41E2,
                1.9E1,
                3.912818E0,
                9.8E1,
                2.5E3,
                1E0,
                -2.5645785E0,
                1.2E0,
                6.7E0,
                4.093062E0,
                5.059183E-1,
                4.3142173E-1,
                -1.1474007E0,
                4E0,
                1.45E1,
                1.6038778E0,
                -2.4287939E-1,
                4.1E1,
                -3.1829314E0,
                -1.09049E0,
                -2.5897024E0,
                -1.6237228E0,
                1E1,
                3.815462E0,
                2.22855E0,
                3.5262089E0,
                2.2069836E0,
                -2.1397251E-1,
                -2.0625282E-3
              ],
              "split_indices": [
                206,
                112,
                0,
                352,
                0,
                107,
                7,
                1,
                0,
                5,
                6,
                364,
                0,
                214,
                3,
                0,
                0,
                0,
                0,
                4,
                4,
                0,
                0,
                278,
                0,
                0,
                0,
                0,
                0,
                0,
                0,
                0,
                0,
                0,
                0
              ],
              "split_type": [
                0,
                0,
                0,
                0,
                0,
                0,
                0,
                0,
                0,
                0,
                0,
                0,
                0,
                0,
                0,
                0,
                0,
                0,
                0,
                0,
                0,
                0,
                0,
                0,
                0,
                0,
                0,
                0,
                0,
                0,
                0,
                0,
                0,
                0,
                0
              ],
              "sum_hessian": [
                8.3E1,
                7.7E1,
                6E0,
                7.2E1,
                5E0,
                6.7E1,
                5E0,
                6.5E1,
                2E0,
                2.3E1,
                4.2E1,
                3.9E1,
                3E0,
                1.3E1,
                2.6E1,
                3E0,
                2E0,
                7E0,
                1.9E1,
                8E0,
                1.5E1,
                8E0,
                5E0,
                1E1,
                5E0,
                6E0,
                4E0,
                3E0,
                5E0,
                3E0,
                3E0,
                2E0,
                3E0,
                2E0,
                3E0
              ],
              "tree_param": {
                "num_deleted": "0",
                "num_feature": "395",
                "num_nodes": "35",
                "size_leaf_vector": "1"
              }
            },
            {
              "base_weights": [
                1.7661147E-1,
                -1.7135596E0,
                2.3780415E1,
                -3.3957999E0,
                2.1754139E1,
                -5.258711E0,
                2.0850458E1,
                -6.426061E0,
                3.4950914E0,
                -1.3075581E1,
                -2.7412763E0,
                -1.3573381E0,
                -2.282894E0,
                6.8337293E0,
                -5.475817E0,
                3.6434937E0,
